4 200
phrase 0.002001 0.002210 -0.001915 -0.001639 0.000683 0.001511 0.000470 0.000106 -0.001802 0.001109 -0.002178 0.000625 -0.000376 -0.000479 -0.001658 -0.000941 0.001290 0.001513 0.001485 0.000799 0.000772 -0.001901 -0.002048 0.002485 0.001901 0.001545 -0.000302 0.002008 -0.000247 0.000367 -0.000075 -0.001492 0.000656 -0.000669 -0.001913 0.002377 0.002190 -0.000548 -0.000113 0.000255 -0.001819 -0.002004 0.002277 0.000032 -0.001291 -0.001521 -0.001538 0.000848 0.000101 0.000666 -0.002107 -0.001904 -0.000065 0.000572 0.001275 -0.001585 0.002040 0.000463 0.000560 -0.000304 0.001493 -0.001144 -0.001049 0.001079 -0.000377 0.000515 0.000902 -0.002044 -0.000992 0.001457 0.002116 0.001966 -0.001523 -0.001054 -0.000455 0.001001 -0.001894 0.001499 0.001394 -0.000799 -0.000776 -0.001119 0.002114 0.001956 -0.000590 0.002107 0.002410 0.000908 0.002491 -0.001556 -0.000766 -0.001054 -0.001454 0.001407 0.000790 0.000212 -0.001097 0.000762 0.001530 0.000097 0.001140 -0.002476 0.002157 0.000240 -0.000916 -0.001042 -0.000374 -0.001468 -0.002185 -0.001419 0.002139 -0.000885 -0.001340 0.001159 -0.000852 0.002378 -0.000802 -0.002294 0.001358 -0.000037 -0.001744 0.000488 0.000721 -0.000241 0.000912 -0.001979 0.000441 0.000908 -0.001505 0.000071 -0.000030 -0.001200 -0.001416 -0.002347 0.000011 0.000076 0.000005 -0.001967 -0.002481 -0.002373 -0.002163 -0.000274 0.000696 0.000592 -0.001591 0.002499 -0.001006 -0.000637 -0.000702 0.002366 -0.001882 0.000581 -0.000668 0.001594 0.000020 0.002135 -0.001410 -0.001303 -0.002096 -0.001833 -0.001600 -0.001557 0.001222 -0.000933 0.001340 0.001845 0.000678 0.001475 0.001238 0.001170 -0.001775 -0.001717 -0.001828 -0.000066 0.002065 -0.001368 -0.001530 -0.002098 0.001653 -0.002089 -0.000290 0.001089 -0.002309 -0.002239 0.000721 0.001762 0.002132 0.001073 0.001581 -0.001564 -0.001820 0.001987 -0.001382 0.000877 0.000287 0.000895 -0.000591 0.000099 -0.000843 -0.000563 
embedding -0.002217 -0.001630 0.001743 0.000503 -0.001181 -0.000796 0.001247 -0.001766 -0.001157 0.002367 0.002124 -0.001980 0.000435 -0.001125 0.000076 0.001503 0.002423 0.000993 0.002056 0.001573 -0.000116 0.002237 0.001268 0.002371 -0.000853 0.002373 0.002164 -0.000714 -0.002210 0.002416 0.000448 -0.001039 -0.000359 -0.000368 -0.001927 -0.000716 -0.000222 -0.002463 -0.001758 -0.000602 -0.000471 0.000895 0.000408 -0.000307 0.001473 0.000723 0.000274 0.001809 -0.000563 -0.000713 -0.000207 -0.001364 -0.001500 0.000101 0.002169 -0.000684 -0.000010 -0.002068 0.001854 -0.000760 0.001484 -0.001204 -0.000448 0.000047 0.001812 -0.000043 0.002216 -0.000371 0.001050 -0.000068 -0.001951 0.002125 0.000528 -0.001515 0.001504 -0.002072 -0.002177 0.001634 -0.001716 -0.001324 0.001764 0.001643 0.000343 0.002262 0.002428 0.002028 0.000882 -0.002175 0.001144 -0.002446 -0.000643 0.000756 0.000490 -0.000762 0.001469 -0.002304 -0.000706 -0.000656 -0.000828 0.001535 -0.002365 0.001389 0.000669 0.001415 0.001839 0.000138 0.000413 -0.002275 -0.000514 0.001607 -0.000893 0.002106 -0.000597 -0.001939 -0.001296 0.002450 0.001669 -0.001984 0.002408 -0.002104 -0.002388 0.001238 -0.000328 -0.001165 -0.000191 -0.001258 0.001198 0.001907 0.002090 -0.002206 -0.001060 0.000005 -0.000468 0.001909 0.001101 0.002267 -0.001537 0.000854 0.002134 -0.000915 0.001461 0.000643 -0.002258 0.002099 0.002355 -0.001458 -0.000121 -0.000800 0.001222 -0.001932 0.001747 -0.000471 -0.000609 -0.001015 -0.002201 -0.001524 -0.000559 0.002309 -0.001261 -0.002319 0.000198 0.000306 0.001521 0.000036 0.001741 0.001492 -0.000654 -0.000319 0.000399 0.000631 0.001668 0.002007 -0.001252 -0.001259 -0.000810 -0.001346 0.000619 -0.001914 -0.001134 -0.002487 0.001088 0.002181 -0.001102 -0.002275 0.001484 0.000794 -0.001261 -0.000321 -0.000616 -0.000062 -0.000907 0.000018 -0.001382 0.001881 0.001914 0.001631 -0.000737 0.000137 0.000403 -0.001341 
clustering -0.002353 -0.000528 -0.000986 0.001492 0.001349 0.000901 -0.001550 0.001772 -0.000804 0.001692 0.000665 0.002389 0.001266 0.000358 -0.001139 0.002483 -0.001111 0.001665 0.002492 0.002445 -0.000359 0.001630 0.002260 -0.001083 0.002351 -0.002482 0.000119 -0.000213 0.002097 -0.002156 -0.000728 -0.000802 0.000208 0.002374 -0.000827 -0.002461 -0.000739 0.002125 0.000523 0.001452 -0.001915 -0.000640 0.000277 -0.001173 0.001757 -0.002404 0.001637 -0.001196 0.001606 0.001599 -0.000943 0.001774 0.000210 0.002385 -0.001761 -0.000622 0.001396 0.002218 0.001137 -0.000493 0.000244 -0.000386 0.000954 0.001300 -0.001918 -0.000660 0.002144 0.000149 0.002486 0.002410 0.000408 -0.002305 0.002286 0.001091 -0.002299 0.001827 -0.002440 -0.001102 0.002225 0.001687 -0.000364 0.000596 -0.001566 -0.002335 0.001091 0.002201 0.002030 0.001402 0.000754 0.000980 -0.000032 0.000788 -0.001296 0.000447 0.000449 -0.000035 0.001268 0.000368 -0.002073 -0.000678 0.001024 0.001758 -0.001894 0.000500 0.001801 0.001884 -0.002062 0.001390 -0.001324 -0.000739 0.000626 0.001133 -0.002022 -0.001345 0.000624 0.000119 0.002285 0.001081 -0.001366 -0.000012 0.000425 -0.001195 0.001611 -0.001367 0.002476 0.000342 -0.002244 0.000192 -0.000234 0.000458 0.001524 0.000057 -0.000126 0.000169 -0.001384 -0.000132 0.001627 0.001740 0.000987 -0.002484 0.000104 -0.001312 0.001839 0.002141 0.001633 0.000777 0.000626 -0.000865 -0.001209 -0.000977 -0.001949 0.000137 0.000408 0.000692 0.001066 -0.001961 0.001560 -0.000701 -0.002124 0.001981 -0.001423 -0.000389 -0.002068 0.002354 -0.000963 -0.002358 0.001939 0.000798 0.001766 0.000659 0.001849 0.000204 0.001845 0.002176 0.000865 -0.000288 0.000600 0.001961 -0.001559 -0.000286 0.000610 0.001027 0.000280 0.001849 0.000703 0.001641 -0.001665 -0.000991 0.000957 0.002319 0.000808 0.000333 -0.002299 -0.002174 0.002153 0.001214 -0.001488 -0.000822 -0.001926 -0.001710 
eric 0.002218 -0.001360 0.000523 -0.000546 -0.001102 -0.000272 -0.002296 -0.001155 -0.000120 0.002207 -0.000931 0.001855 -0.002259 0.002094 0.000322 0.000123 0.001311 0.001654 -0.001585 0.001540 0.000667 -0.000598 0.001553 0.000248 0.002137 0.000104 -0.000813 0.001636 -0.001701 -0.000224 0.002022 0.002346 -0.002018 0.000683 0.002010 0.000267 0.001264 0.001341 0.002355 -0.000459 -0.000528 0.001516 -0.002491 0.000558 0.000185 0.002223 -0.001824 -0.000041 0.002231 0.000728 0.001308 0.000635 0.000689 0.000547 0.000110 0.001725 0.001885 0.001444 -0.000967 -0.001379 -0.001601 -0.000563 -0.001218 -0.002037 -0.000941 0.001789 0.001309 -0.002357 -0.001058 0.002018 -0.000182 0.001799 -0.000623 -0.000112 -0.001239 0.000824 -0.002058 0.001415 -0.001158 0.001358 -0.001536 -0.001134 0.002014 0.001291 0.001023 0.000754 0.001479 -0.000236 0.001946 0.001847 0.001692 0.002168 -0.001188 -0.001840 -0.001645 0.000144 0.000448 0.001958 -0.001579 0.001581 0.001933 0.001757 0.000094 0.000620 -0.000406 0.002322 -0.002174 -0.002347 0.001010 -0.000330 0.002321 -0.000680 0.000010 0.001065 0.000532 -0.001489 0.001670 0.000024 0.000661 -0.000633 0.002320 0.001312 0.002163 0.002278 -0.000463 0.000945 0.000740 -0.001114 0.002150 0.001189 -0.001655 0.002081 0.000236 0.000558 -0.001818 0.001003 0.000124 -0.001181 -0.000296 0.001044 -0.000608 0.001987 -0.001387 -0.001157 0.001868 0.002327 0.001862 0.002292 -0.002370 -0.001643 -0.002344 0.000531 -0.001994 -0.000160 0.000447 -0.001049 0.000575 -0.002206 0.000938 -0.000809 -0.000836 -0.000518 0.001082 -0.000856 -0.001148 -0.001578 -0.000917 -0.002051 0.000966 -0.000622 -0.000607 0.000998 -0.001914 -0.001634 -0.002283 -0.000070 -0.000962 -0.002348 0.001005 -0.002364 -0.001098 0.000752 0.002463 -0.001742 -0.000995 0.002431 0.001543 0.002185 0.001925 -0.001296 -0.001052 0.001059 0.001490 0.001838 0.001632 -0.002230 -0.002220 0.000348 -0.002204 0.001458 
